{
  "W1": [
    [
      1.129369164963305,
      -0.23407213519014267,
      0.05334190066685768,
      0.36205066999750124,
      0.4913251110307384,
      0.7695868311079641,
      -0.0816599118166106,
      0.06549948906994321,
      -0.055423693447274006,
      0.000248698442902842
    ],
    [
      1.2928663082242442,
      -0.7370853711634577,
      0.3642173833046684,
      -0.1504496528566194,
      -0.005310622446499586,
      0.3163575121551148,
      0.16639105485379246,
      -0.20041871999194413,
      -0.1287676308448858,
      0.12559863979678515
    ],
    [
      0.37570910382081124,
      -0.3642975350942964,
      0.1927287014334481,
      -0.40861629350144657,
      -0.03548946332769338,
      0.2598804977039711,
      0.17710690680573246,
      -0.0820653177854812,
      0.11180950429978499,
      -0.23667660917049502
    ],
    [
      -1.0957350563415085,
      0.39111893735793135,
      0.07472246354451005,
      -0.5635792663448819,
      -0.6869588082115926,
      -0.6705011095555817,
      -0.9897343518002734,
      -0.11978697522214168,
      0.09657775611547605,
      0.09603871056863064
    ],
    [
      1.4362417414099657,
      0.32018326942035136,
      0.6663170510785076,
      0.6120280769954202,
      0.09554365747371171,
      -0.4762902852979785,
      0.08138716990825756,
      -0.0018329412771822921,
      0.00426446496425696,
      -0.017210650092814587
    ],
    [
      -0.002939781038995502,
      0.23111270237986803,
      -0.10904076924497223,
      -0.3547782414838443,
      0.909563936711341,
      -0.15442772855651768,
      -0.6864109195329148,
      0.04454393839921146,
      -0.0510494745752609,
      0.14166477034112743
    ],
    [
      0.37663218437224977,
      -0.8540297434324534,
      -0.10891007923201701,
      -0.3615111276302309,
      -0.335181634012014,
      0.3186644637234165,
      0.32346328287646414,
      -0.06258855924035184,
      -0.04207736501768512,
      0.13821063956832055
    ],
    [
      0.30122870468463586,
      -0.40796232683723066,
      -0.39931836892152317,
      -0.33781439748784353,
      -0.8336129377638523,
      0.01155168807102693,
      0.9482182566770571,
      -0.28537806986813263,
      0.04134773047432382,
      0.08154266749101614
    ],
    [
      -0.17174542200198797,
      -0.269474872717352,
      0.20464767520004404,
      -0.22927042565061875,
      0.509774186998446,
      0.1521354345739743,
      -0.030929037424434168,
      0.2718155969049728,
      0.10517132796485539,
      -0.11239688531851275
    ],
    [
      0.09651865667933485,
      0.9846849120585128,
      -0.08029207063095048,
      -0.6182365330772108,
      0.33217141232726555,
      -0.09598505122189521,
      -0.06349537674501927,
      0.17398132911520134,
      0.06326884757866548,
      -0.016614025369581044
    ]
  ],
  "b1": [
    -0.7799771535422368,
    1.8259540731507782,
    0.3562112893915613,
    0.6230965287305824,
    0.06861249721067925,
    0.233151259245649,
    0.34466706778597894,
    1.4229991996457254,
    -1.200575591722247,
    -1.205681955532758
  ],
  "W2": [
    [
      0.2302161008119583,
      -0.1252221018075943,
      -0.2729547917842865,
      -0.1519937366247177,
      0.1874135583639145,
      -0.26133036613464355,
      0.09606519341468811,
      0.4593730568885803,
      0.37145480513572693,
      -0.1312481164932251
    ],
    [
      0.4778311550617218,
      -0.4300279915332794,
      0.027905618771910667,
      -0.2806347608566284,
      0.04510875046253204,
      -0.07693053036928177,
      0.25285056233406067,
      0.44181907176971436,
      0.19861339032649994,
      -0.3660709261894226
    ],
    [
      -0.24434562027454376,
      0.23531807959079742,
      0.3236585557460785,
      0.27361658215522766,
      -0.44899606704711914,
      0.1280902624130249,
      -0.5545921325683594,
      0.261568546295166,
      -0.03274274989962578,
      -0.020087406039237976
    ],
    [
      0.4985639154911041,
      -0.5211241841316223,
      0.29347339272499084,
      -0.2954990863800049,
      0.2751150131225586,
      0.27446112036705017,
      0.10154460370540619,
      0.08895883709192276,
      -0.30105188488960266,
      -0.26001837849617004
    ],
    [
      -0.2950786054134369,
      0.05236079543828964,
      -0.08456754684448242,
      0.1445448100566864,
      -0.3283713757991791,
      -0.17107407748699188,
      -0.12107914686203003,
      0.22080087661743164,
      0.4197009205818176,
      0.15190532803535461
    ],
    [
      -0.20939482748508453,
      0.15834395587444305,
      -0.009517780505120754,
      0.11653423309326172,
      0.33055227994918823,
      0.19797642529010773,
      -0.14653810858726501,
      0.6460331082344055,
      -0.25392457842826843,
      0.47052493691444397
    ],
    [
      -0.126372292637825,
      0.4992709457874298,
      -0.24286913871765137,
      -2.731306314468384,
      -0.3284001350402832,
      -0.26849883794784546,
      -0.10486473888158798,
      -0.25281745195388794,
      0.018943876028060913,
      0.26981034874916077
    ],
    [
      0.43287110328674316,
      -0.3456243574619293,
      0.3210556209087372,
      0.45462509989738464,
      -0.31994229555130005,
      0.3780725300312042,
      0.18572193384170532,
      0.4569437503814697,
      -0.18537966907024384,
      0.16455796360969543
    ],
    [
      -0.13424308598041534,
      -0.26162058115005493,
      0.2885597050189972,
      0.07634124159812927,
      0.15714411437511444,
      -0.1233491376042366,
      -0.4183627665042877,
      0.4400723874568939,
      0.4250149130821228,
      -0.4996476173400879
    ],
    [
      -0.25056666135787964,
      0.2131337821483612,
      -0.7977264523506165,
      0.057875726372003555,
      0.15763255953788757,
      0.32384371757507324,
      0.20912443101406097,
      0.573395311832428,
      -0.11487727612257004,
      0.34700122475624084
    ]
  ],
  "b2": [
    0.4503820538520813,
    0.016849281266331673,
    -0.4576001465320587,
    0.29263564944267273,
    0.20735666155815125,
    0.06477118283510208,
    -0.04968339949846268,
    -0.2093464434146881,
    0.36218005418777466,
    0.02938804030418396
  ],
  "W3": [
    [
      -0.06734384596347809,
      -0.3835752308368683,
      0.35865074396133423,
      0.37202179431915283,
      0.1099405586719513,
      -0.345138281583786,
      0.8215055465698242,
      -0.0803598016500473,
      0.35346004366874695,
      0.5563400983810425
    ],
    [
      0.31804171204566956,
      -0.46195703744888306,
      -0.7401589155197144,
      -0.5019264221191406,
      -0.3450612425804138,
      -0.09682293981313705,
      -0.7763586044311523,
      0.41921839118003845,
      -0.35755130648612976,
      -0.02342292293906212
    ]
  ],
  "b3": [
    -0.024475235491991043,
    0.0317486897110939
  ],
  "centroids": [
    [
      0.26184573769569397,
      -0.07325242459774017
    ],
    [
      0.2518636882305145,
      -0.1612207442522049
    ],
    [
      0.24416108429431915,
      -0.1336204707622528
    ],
    [
      0.2568857669830322,
      -0.10202431678771973
    ],
    [
      0.2667146921157837,
      -0.07209832966327667
    ],
    [
      0.22418606281280518,
      -0.15187029540538788
    ],
    [
      0.25986337661743164,
      -0.17948877811431885
    ],
    [
      0.17287342250347137,
      -0.12771907448768616
    ],
    [
      0.20016148686408997,
      -0.05931149795651436
    ],
    [
      0.291721910238266,
      -0.12870214879512787
    ],
    [
      0.15994517505168915,
      -0.13762955367565155
    ],
    [
      0.2579372525215149,
      -0.18029053509235382
    ],
    [
      0.27429431676864624,
      -0.15502823889255524
    ],
    [
      0.2752093970775604,
      -0.12121965736150742
    ],
    [
      0.24675382673740387,
      -0.1661698818206787
    ],
    [
      0.2675865590572357,
      -0.22573550045490265
    ],
    [
      0.20600290596485138,
      -0.1648021787405014
    ],
    [
      0.30146902799606323,
      -0.1846606433391571
    ],
    [
      0.22701029479503632,
      -0.0932571291923523
    ],
    [
      0.24095435440540314,
      -0.1321619749069214
    ]
  ],
  "embed_dim": 2,
  "accuracy": 0.1189,
  "val_accuracy": 0.2102,
  "n_training_residues": 81124,
  "n_structures": 485,
  "alphabet": "ACDEFGHIKLMNPQRSTVWY"
}