{
  "W1": [
    [
      0.4712883037422831,
      0.03599756336012496,
      -0.28112871781193305,
      0.2942991826871919,
      0.17241049280093199,
      0.6361653396217681,
      -0.13023490670650642,
      -0.08428314842247782,
      0.11366204652140434,
      -0.04723594163229982
    ],
    [
      -0.17222686777243285,
      -1.9672606520808842,
      -1.1971066564693664,
      1.7504042336075751,
      0.1634320649841443,
      0.5431312736116483,
      1.3929115707989685,
      -0.03762225993431876,
      -2.4673834091800253,
      -0.12837363021413117
    ],
    [
      0.4361633925358594,
      -0.4440200780532413,
      -0.6084815555079507,
      0.7188715874421874,
      -0.11785626046800522,
      0.37547263150242915,
      0.5333365145218459,
      -0.011465509082104221,
      -1.559564403398957,
      -0.05534103690349063
    ],
    [
      1.9965368543493356,
      -0.8703007668407131,
      1.8688292624190874,
      -0.18688798232745688,
      -1.7723367716911684,
      -1.1885984213041099,
      -2.4730947399818013,
      0.3859408165059763,
      1.3170079020274494,
      -0.05404182098386107
    ],
    [
      0.20878958210851337,
      -3.2858752536500253,
      0.39204410677218765,
      1.3210050414153092,
      0.08228641497642045,
      -0.1658482068921466,
      0.7965575314291099,
      -0.07633737096819453,
      0.2057900316838889,
      -0.04036651867304755
    ],
    [
      0.15663270875121152,
      0.5640745404409556,
      -0.4017287264512729,
      0.05526962776755485,
      -0.40916091245494046,
      -0.032050541188190916,
      -0.3841881527972971,
      0.13399090018755383,
      -1.4142750387798042,
      -0.060413202287193477
    ],
    [
      -0.48381012946570556,
      -0.11757174458266152,
      -0.2873479500372056,
      -0.3464446203573703,
      0.014858221608309592,
      -0.13140861288079572,
      -0.15363776104552193,
      0.08550181621328867,
      0.26597539839541867,
      -0.08115866825858273
    ],
    [
      0.32750587109070267,
      -0.690140689569555,
      0.6315757921696487,
      -0.19286549005278406,
      -0.2102923040045428,
      1.4059985446177359,
      -0.761080498744828,
      0.06379393901176635,
      0.27638973525402794,
      -0.18460031428432083
    ],
    [
      -0.2774208224661385,
      -0.38663714024437695,
      -0.8714487831424383,
      0.6251887295811002,
      -0.18329974511547398,
      0.2206719517744901,
      0.44084013438256064,
      0.059051394303631,
      -1.4831258720652498,
      -0.07649861896258009
    ],
    [
      0.5619117394727238,
      -0.3128468851238923,
      0.7334736938905762,
      -0.15126077848814642,
      -0.8333404942595575,
      -0.5903800216928236,
      -1.0717065859606518,
      0.1745281222923905,
      0.5410727197896564,
      -0.015676734923404358
    ]
  ],
  "b1": [
    -1.492680867509239,
    1.0245867638271364,
    -3.2021502380618054,
    0.3130785113649024,
    5.5787666379611665,
    -0.2281178376736972,
    -3.2702652260912863,
    -4.097207812159721,
    1.9364610444934254,
    3.5556555427181227
  ],
  "W2": [
    [
      -1.5184838771820068,
      0.3347282111644745,
      0.2001630961894989,
      1.8547389507293701,
      -0.3957713544368744,
      0.9724777340888977,
      -0.2668708860874176,
      0.09033486247062683,
      1.4461551904678345,
      0.7256949543952942
    ],
    [
      0.41619637608528137,
      1.0632725954055786,
      -0.6518791913986206,
      -0.0397307462990284,
      0.45639747381210327,
      1.1436129808425903,
      -1.676946997642517,
      -1.343609094619751,
      0.1831226497888565,
      0.6288599371910095
    ],
    [
      0.3521948754787445,
      1.21638822555542,
      -0.1925508826971054,
      -0.45766481757164,
      -0.26097550988197327,
      1.5210602283477783,
      -2.5602636337280273,
      -2.628814458847046,
      -0.0691317543387413,
      1.0234506130218506
    ],
    [
      1.1549808979034424,
      -1.4838846921920776,
      3.169253349304199,
      1.0052598714828491,
      0.7795448899269104,
      0.510357677936554,
      -2.601498603820801,
      0.1526023894548416,
      -0.7457885146141052,
      2.273496389389038
    ],
    [
      1.1140251159667969,
      1.9211301803588867,
      -0.43699365854263306,
      0.0707947388291359,
      -1.7287603616714478,
      0.23391322791576385,
      1.3410439491271973,
      0.03275155648589134,
      -0.763960599899292,
      0.7150986790657043
    ],
    [
      0.054508183151483536,
      0.1391594260931015,
      0.836760401725769,
      0.7182645201683044,
      0.9963818192481995,
      0.5547544360160828,
      -3.8691627979278564,
      -2.852792739868164,
      0.14347241818904877,
      -0.1305387169122696
    ],
    [
      0.19569924473762512,
      -0.4421709179878235,
      2.591071128845215,
      1.3185093402862549,
      0.7367616891860962,
      0.20159147679805756,
      -3.4238719940185547,
      0.5948488116264343,
      1.4361097812652588,
      1.0316448211669922
    ],
    [
      -0.7001616358757019,
      0.3131919503211975,
      0.6986901164054871,
      -0.16934384405612946,
      1.7308316230773926,
      1.4050416946411133,
      -2.8960273265838623,
      -8.386357307434082,
      0.1616535186767578,
      -1.1049093008041382
    ],
    [
      0.1021103709936142,
      1.0768537521362305,
      0.0917275920510292,
      0.34777095913887024,
      -0.5145114660263062,
      0.3493978977203369,
      -0.056913699954748154,
      -1.4988065958023071,
      0.675197958946228,
      1.3149347305297852
    ],
    [
      -0.012477666139602661,
      1.6119780540466309,
      0.30070945620536804,
      0.2657216787338257,
      0.08837027847766876,
      1.3559308052062988,
      0.062087565660476685,
      0.6841580271720886,
      -0.5526571273803711,
      0.28203776478767395
    ]
  ],
  "b2": [
    1.4886397123336792,
    -0.43218162655830383,
    0.0855838805437088,
    -1.7440025806427002,
    2.327836036682129,
    1.2142199277877808,
    -0.11868920922279358,
    0.24016250669956207,
    -1.3057771921157837,
    1.7858210802078247
  ],
  "W3": [
    [
      1.3703553676605225,
      -1.9180309772491455,
      1.8812681436538696,
      0.23560474812984467,
      -1.9477189779281616,
      -0.79925936460495,
      -0.8500308990478516,
      1.8154689073562622,
      0.582549512386322,
      -1.0698376893997192
    ],
    [
      -1.2881025075912476,
      -0.14897571504116058,
      1.7867698669433594,
      2.158722162246704,
      -0.24264773726463318,
      -0.6772661805152893,
      -1.0091164112091064,
      0.23858174681663513,
      0.822752058506012,
      0.37723255157470703
    ]
  ],
  "b3": [
    0.7516160607337952,
    -4.103733539581299
  ],
  "centroids": [
    [
      6.0871148109436035,
      0.1378527134656906
    ],
    [
      5.368495464324951,
      -1.0903282165527344
    ],
    [
      6.257953643798828,
      -6.860726833343506
    ],
    [
      8.429627418518066,
      1.4904495477676392
    ],
    [
      4.737001895904541,
      -6.8005900382995605
    ],
    [
      0.9785035848617554,
      9.051294326782227
    ],
    [
      0.3418712615966797,
      1.86632239818573
    ],
    [
      -1.9896321296691895,
      11.510481834411621
    ],
    [
      8.862696647644043,
      -1.3270485401153564
    ],
    [
      -1.0684983730316162,
      2.818726062774658
    ],
    [
      -4.459349155426025,
      12.578156471252441
    ],
    [
      -1.0074135065078735,
      9.153351783752441
    ],
    [
      6.311318397521973,
      -2.145002603530884
    ],
    [
      -3.144954204559326,
      9.850205421447754
    ],
    [
      7.3983334004879e-05,
      9.748451232910156
    ],
    [
      -4.660743713378906,
      9.64992904663086
    ],
    [
      -2.5859487056732178,
      8.651649475097656
    ],
    [
      6.178628921508789,
      1.9618425369262695
    ],
    [
      5.778148174285889,
      3.289990186691284
    ],
    [
      -1.5242400169372559,
      4.382864475250244
    ]
  ],
  "embed_dim": 2,
  "val_recon_loss": 0.33350539207458496,
  "codebook_usage": 20,
  "perplexity": 17.80632640447154,
  "n_training_residues": 7723530,
  "n_structures": 9407
}